[ 2.88698100e-03  2.24619430e-06 -4.14853310e-03  6.17464632e-03
  3.47589329e-03  5.04003023e-04 -3.24437232e-03  9.52560687e-04
 -1.97557616e-03  4.27657599e-03 -2.62294360e-03 -4.07662336e-03
  4.88712266e-02  6.06062077e-02  1.46215344e-02  8.33948434e-04
 -2.26214924e-03 -5.11377258e-03 -4.84206853e-03  4.98865731e-03
  3.69985099e-03 -1.73095427e-03 -3.88129428e-03  2.29673926e-03
 -4.01849160e-03 -5.92193147e-03 -1.22086122e-03 -4.08834964e-03
  2.55720457e-03 -2.52325484e-03 -5.20380680e-03  7.51099503e-03
  1.32166038e-04  1.85636734e-03 -9.53982308e-05  1.44717425e-01
  7.70666376e-02  7.03632012e-02  3.13118130e-01  1.75801545e-01
 -4.42203909e-01 -6.61846250e-02 -1.18135475e-01  1.48984537e-01
  6.93047494e-02  7.10754842e-02  2.01179415e-01 -1.27599061e-01
  4.52644043e-02 -9.02384669e-02 -1.11442816e-03  4.80915233e-02
  4.58821934e-03  2.14639097e-03 -1.26259599e-03 -2.96011264e-03
  2.14227694e-04  3.21554858e-03  3.49451266e-02 -4.46763029e-03
  9.29704867e-03  8.88992697e-02  2.20344707e-01 -1.47162363e-01
  4.14438456e-01  3.30114774e-02 -7.55446911e-01  2.25359779e-02
  1.54754007e-02  2.83031492e-03  7.72895992e-01  4.64292504e-02
 -7.23951101e-01  3.39357197e-01 -8.49233568e-01  7.36108959e-01
  1.03636123e-01  1.34855539e-01  7.55643308e-01 -5.34935296e-02
  1.05779007e-01 -1.17884710e-01 -7.30730186e-04  5.42854599e-04
  9.95107810e-04 -1.38226093e-03  3.30630429e-02  2.79982705e-02
  2.33822688e-02  2.20217302e-01  7.82096758e-02  2.30013445e-01
  5.21610200e-01 -2.67439544e-01 -1.54817179e-01  2.78938469e-02
  5.68749368e-01  1.27518103e-01  1.89877316e-01  1.53837875e-01
 -6.13847315e-01 -7.69722342e-01 -6.96447253e-01 -2.39652082e-01
 -8.38863075e-01  5.95383942e-01 -5.07685125e-01 -3.25638503e-01
  2.58454084e-01  1.77948385e-01  1.14244632e-01 -3.27198184e-03
  5.90507057e-04  1.85761005e-02 -1.59786884e-02  3.05255130e-03
  7.62199238e-02 -3.95947555e-03  1.13710023e-01  2.48130739e-01
  1.41104236e-02  3.96450043e-01 -5.77651024e-01 -2.34040641e-03
  5.85379779e-01  2.04577204e-03  6.31294632e-03  1.66556329e-01
  2.38523304e-01  5.23316920e-01 -3.00368480e-02  1.79332316e-01
  8.87731731e-01  3.42386156e-01 -2.40515292e-01 -1.68587700e-01
 -4.25808817e-01  9.51678902e-02 -4.67314534e-02 -1.03218639e-02
  1.94156426e-03 -3.84396175e-03 -2.88798232e-02  1.51022285e-01
 -2.15484455e-01  1.76371679e-01 -2.26002529e-01  8.96385252e-01
  7.46040642e-01  2.19803393e-01 -7.58276030e-04 -2.88143039e-01
 -1.10867165e-03 -1.62471517e-03 -1.51955277e-01  3.46199563e-03
 -1.13167778e-01 -7.33288610e-03  3.17520231e-01  1.14177063e-03
 -2.18562875e-02 -2.47559518e-01  6.73734069e-01 -4.84584212e-01
 -8.85638237e-01 -3.14046055e-01  3.78842443e-01  8.19465593e-02
 -4.76488312e-05  4.97913314e-03  3.07186842e-01 -3.41544481e-04
 -1.94426119e-01  3.88424575e-01  1.99173331e-01 -1.64018229e-01
  2.45577514e-01  5.24328798e-02  2.71845353e-03 -2.50462145e-01
 -4.00638999e-03 -1.57294236e-03 -1.43735413e-03  3.42759900e-02
  6.69624598e-04 -2.26653591e-01 -2.18043639e-03  4.36333520e-03
  2.59655761e-03  7.77791161e-03  2.42889225e-02  6.62093088e-02
  9.33495700e-01  6.60097539e-01 -8.71360675e-02 -3.31366882e-02
  2.48850789e-02  1.60251722e-01 -1.69432163e-01 -6.03333348e-03
 -1.20281123e-01  2.38765404e-01  1.97255924e-01 -7.34507442e-01
 -4.62322056e-01 -3.00666708e-02 -2.47090589e-03  3.38299340e-03
  4.13184101e-03 -4.29734699e-02 -6.80947537e-03 -7.92850107e-02
 -1.06149549e-02 -3.37229639e-01 -1.36111662e-01 -4.56262156e-02
  2.80541599e-01 -2.05372840e-01 -6.81170821e-01  7.66171157e-01
  2.11489290e-01  1.00790429e+00  2.53512170e-02 -1.46330804e-01
  6.51651919e-02  1.30276501e-01 -1.41617402e-01  1.19497873e-01
 -2.50380009e-01 -7.47713074e-02  1.21211790e-01  2.70173303e-03
  3.62309098e-01  3.85534856e-03 -4.80434718e-03  5.21490769e-03
 -4.70354361e-03 -7.45828971e-02  2.15884089e-01  4.12123799e-02
  1.99009106e-03 -4.65000886e-03  1.52112693e-02 -1.10448559e-03
 -5.47058880e-02  2.64956034e-03 -4.92555904e-04 -2.69690081e-02
 -1.54590653e-03  4.68240827e-01  9.07380223e-01 -5.63544780e-02
 -1.09406412e-01  5.52437268e-02  5.46937466e-01  1.32582456e-01
 -2.85176039e-01  9.84312147e-02  1.41321927e-01 -7.18226060e-02
  8.08920935e-02  3.80198002e-01  6.79330260e-04 -5.19644201e-01
 -3.63959861e-03 -5.43971406e-03  4.13818704e-03 -2.91652535e-03
 -8.41392055e-02  2.80443300e-03  6.51448816e-02 -8.94591096e-04
  1.37067307e-03  3.49241316e-01 -7.23165367e-03 -8.18470657e-01
  9.23209012e-01 -9.00146306e-01  6.17293417e-01  8.21719691e-02
 -1.09500354e-02  5.19122630e-02 -4.70201313e-01  5.20771921e-01
  3.23627204e-01  2.36035027e-02  3.24228383e-03  1.32725835e-01
  1.52108807e-03  4.90831677e-03 -3.51440930e-03  1.36026449e-03
 -4.05116240e-03 -2.15724826e-01 -1.07305795e-02 -5.53130032e-03
 -3.26605653e-03 -4.54703113e-04  3.94507917e-03 -4.04006743e-04
 -2.83101737e-01  5.61170327e-03  3.14492315e-01 -7.61430264e-01
  5.37437014e-02 -5.08176625e-01 -2.77323931e-01  1.56155586e-01
 -1.34270452e-03  9.23503563e-02 -5.69394946e-01  3.23759094e-02
 -3.14524084e-01  5.75772300e-02  1.88994452e-01  1.32629721e-04
  2.77361390e-03  1.65912043e-02 -2.05864571e-02  3.06076929e-03
 -1.40795901e-01  3.80236167e-03  3.42274364e-03 -1.07063890e-01
 -2.82895174e-02  9.22571216e-03 -1.80310651e-03 -4.98443507e-02
  5.98821137e-03 -2.00878666e-03 -5.82053781e-01  9.08222198e-02
  5.31606786e-02  2.61790846e-02  5.20709991e-01  1.98238790e-02
 -2.10836623e-03  8.96761045e-02  3.97887766e-01  4.54942435e-01
  1.20944470e-01  3.39298719e-03 -2.52438366e-01  2.93566078e-01
 -4.81569907e-04 -6.74432237e-03  3.21290083e-02 -8.26414907e-04
 -6.77206146e-04  1.63030508e-03 -9.39132348e-02 -1.76754233e-03
  5.14905760e-03  5.04510757e-03 -1.02555859e+00  3.33742835e-02
  4.74650234e-01  2.22093672e-01  2.10450768e-01 -7.33523786e-01
  1.01095848e-01  1.48524284e-01  4.75562699e-02  3.60150635e-02
  4.37567383e-03  1.96235299e-01 -3.46086361e-02  3.57658654e-01
  6.16903782e-01  1.22506976e-01 -1.36511330e-03  1.54469237e-01
  6.55485736e-03  1.29068142e-03 -3.74389887e-02 -9.49592590e-02
 -1.09607860e-01  4.46974859e-02  5.98060004e-02  2.07871497e-01
  1.15846819e-03  4.49702609e-03 -2.16248836e-02 -4.31839749e-03
  5.10653574e-03 -4.71055686e-01  4.33940530e-01  4.56290841e-01
  1.81782804e-02 -7.48236626e-02  4.43564868e-03  7.29589462e-02
 -9.02334228e-02  7.82167166e-03 -1.98260739e-01  2.22260743e-01
  2.43426010e-01  2.33875841e-01  8.31977606e-01  4.84574527e-01
  1.03954770e-01  2.17490774e-02 -4.32638861e-02  3.66562717e-02
 -3.22262221e-03  1.33428156e-01  2.23380089e-01 -4.08861227e-03
 -2.23227218e-01  2.45708600e-01 -2.79264804e-03  6.67788275e-03
  1.38364941e-01  5.64775348e-01  9.69712362e-02  3.53928745e-01
 -4.57593143e-01  2.80779839e-01 -5.89746058e-01  7.98679665e-02
  1.44852540e-02 -6.66437820e-02 -1.21930532e-01  6.16191268e-01
  9.14699063e-02 -1.25039786e-01  9.58401803e-03 -5.52573986e-02
 -3.06686550e-01 -4.22481745e-02 -8.40523243e-02 -4.18296754e-02
  3.38705219e-02  2.12336510e-01  2.67594695e-01  3.15036438e-03
  2.68816471e-01 -1.60920992e-03  2.13729031e-02  4.70530577e-02
  2.44311942e-03 -1.25695601e-01 -1.04305960e-01  1.56123221e-01
  4.25938338e-01 -1.93730481e-02  9.57301445e-03  1.36241078e-01
  8.83381516e-02  2.94707716e-02  3.65913957e-01  4.80443478e-01
  1.73851967e-01  1.50535896e-01  2.98161060e-01  5.25852382e-01
 -1.43304691e-01  1.64041144e-03 -1.58651054e-01  3.69018386e-03
  1.12837432e-02  1.09430969e-01  2.15582952e-01  2.32553050e-01
 -2.94714631e-03  2.54119933e-03  3.15600797e-03  1.91236881e-03
 -6.44482300e-02 -4.80689347e-01 -8.17010645e-03 -5.76659977e-01
  5.98216176e-01  3.06487888e-01 -2.95227438e-01 -4.08408865e-02
  4.05793684e-03  3.56826931e-02 -2.82645464e-01  4.43507224e-01
 -4.02289540e-01 -7.71790696e-03  1.47480324e-01 -3.45908791e-01
 -2.56017715e-01  4.62039001e-03 -2.11514905e-01  2.59527683e-01
 -1.03043683e-01  1.66371223e-02 -5.21347451e-04  7.13253103e-04
 -6.45983964e-03  3.10349278e-03 -5.22729754e-03  2.02819984e-03
  3.12063098e-01  1.04758225e-03 -5.09973150e-03  3.84726286e-01
  6.38689280e-01  8.28459784e-02 -4.00622003e-03  7.86668956e-02
 -8.39655399e-02 -1.53370891e-02  1.17587388e-01 -9.81855631e-01
 -4.34747823e-02  6.51565194e-02 -1.19667221e-03 -7.57397525e-03
 -9.57860574e-02 -2.85626739e-01 -2.68043846e-01 -2.13481948e-01
  5.13737462e-03 -5.89795969e-02  1.45895523e-03  2.94154254e-03
  2.82762712e-03 -3.43320804e-04  1.06069725e-03 -1.72796834e-03
 -5.50658070e-03  1.67188700e-03  2.42563367e-01  1.26563206e-01
  6.28869832e-01 -3.54013085e-01 -2.63766319e-01  1.60555273e-01
  3.46984342e-03  2.56030798e-01  2.23590255e-01  1.63576081e-01
  7.34559000e-01  8.09867755e-02 -6.49969559e-03  3.19702685e-01
 -3.58936727e-01  1.01831579e-03 -2.06501991e-01 -1.67145520e-01
 -1.31612876e-03  1.61923338e-02  3.49974167e-03 -5.33785522e-01
 -7.99453526e-04  4.76248912e-04  4.50838450e-03 -6.39350037e-04
  3.14528286e-01 -2.56043766e-03  1.56370163e-01  3.81834984e-01
  9.46036398e-01  1.91657111e-01  2.10698500e-01 -3.12376791e-03
 -2.18803599e-03 -4.73873056e-02  1.05334900e-01  9.72230196e-01
  1.19199507e-01 -6.75514996e-01 -6.42126705e-03  2.74986565e-01
  1.14040403e-02  5.26037998e-04  2.41735622e-01 -3.23983841e-03
  4.95359721e-03  3.80907813e-03  3.57249682e-03  3.77517031e-03
  4.33829194e-03 -2.99062440e-03 -1.55165985e-01 -3.02935421e-01
 -3.87183458e-01 -4.37543631e-01 -1.76237136e-01 -7.65865624e-01
 -8.67274284e-01  5.29621780e-01  1.00396737e-01  6.16895370e-02
 -3.44918604e-04  9.98174250e-02  3.78079951e-01 -2.60058999e-01
 -6.75006628e-01 -4.96401936e-02 -2.82914322e-02  1.99408889e-01
  7.02815922e-03  2.20072712e-03  6.47386583e-03 -4.85142022e-01
 -2.02889279e-01 -5.68751071e-04 -8.03314447e-01 -3.70330550e-02
  3.03905166e-04  4.62026196e-03  1.63143024e-01  3.74781519e-01
  1.44884944e-01  5.58792412e-01  3.60467464e-01 -2.90537894e-01
 -7.72883117e-01  1.18557058e-01 -8.16581845e-02 -4.41602012e-03
  4.27214475e-03 -2.07367353e-02 -2.37944633e-01  9.06973541e-01
  6.60042465e-01  5.97311184e-02 -2.31187940e-01  2.97857076e-02
  2.37111434e-01 -1.32443026e-01 -1.52648706e-03  7.97710344e-02
  9.13923420e-03  1.72294915e-01  1.57008529e-01 -2.25828262e-03
  4.27650288e-04 -9.88160959e-04 -3.42058600e-03  1.35432575e-02
  1.08442217e-01  1.01286463e-01 -2.12123603e-01 -1.42181264e-02
  4.03527826e-01 -1.58527330e-01  3.65199260e-02  4.47098762e-02
 -2.75632041e-03 -4.71733772e-04 -1.22981198e-01  4.95709747e-01
 -6.99229538e-01 -4.82904986e-02  2.24805623e-03  4.36702490e-01
  3.25064058e-03  2.12936662e-03  3.34374607e-03  4.39742813e-03
 -2.83578783e-03  5.36623120e-01 -6.13516616e-03  3.68641340e-03
  3.04196915e-03  1.84615105e-01  1.59599930e-02  3.20531405e-03
 -2.25067392e-01  3.22598934e-01  3.29178751e-01  2.62556463e-01
 -3.63624208e-02 -7.17534199e-02  1.81710199e-02  2.67143175e-03
  3.20952642e-03  2.80729204e-04  7.08765313e-02  3.49939823e-01
  4.77802753e-01 -4.74988014e-01  1.23417757e-01  3.62841785e-02
  2.38903537e-01 -2.31289119e-01  2.09266436e-03 -4.98893917e-01
  8.96454230e-03  2.49844813e-03  1.16339982e-01 -1.68563798e-02
 -6.90116286e-02 -1.95973064e-03  6.25943542e-01  1.17060924e-02
  3.64442635e-03 -3.12839374e-02 -4.08016384e-01 -3.98971260e-01
 -2.97154915e-02 -5.75529300e-02 -1.17898464e-01 -4.44812980e-03
 -5.00353752e-03 -2.41804123e-03 -5.95879853e-02 -9.53397602e-02
  2.94194877e-01 -2.94684023e-01  8.41363013e-01 -8.12555611e-01
  9.34579790e-01  4.36001629e-01  1.24826476e-01 -5.93048595e-02
  6.74525440e-01 -4.49902534e-01  1.47234201e-01  3.63639414e-01
  1.05052024e-01 -7.45008886e-02 -2.65174657e-01  1.80148929e-02
  8.85668218e-01 -8.47839057e-01 -2.78471440e-01 -2.07969621e-02
  7.23653734e-02 -4.17393707e-02 -9.98713076e-02 -1.82191958e-04
 -3.34351882e-03  1.30732579e-03  1.27783639e-03 -5.46578085e-03
  9.45222471e-03 -1.69801459e-01 -4.54913795e-01 -8.63885045e-01
 -8.77191722e-01  2.17783391e-01 -1.04582772e-01 -3.81128460e-01
 -5.36276877e-01 -3.26744676e-01  4.23930168e-01  9.31613207e-01
 -6.10266998e-02 -1.86786592e-01 -3.42132956e-01  5.40934324e-01
  4.58246022e-01  3.54981162e-02  1.60057440e-01  1.74178123e-01
 -2.26206938e-03  6.13772776e-03  3.53886792e-03  1.33469445e-03
 -8.67343217e-04  3.66080482e-03  7.26654893e-04 -1.54185877e-03
  2.32929853e-03  1.13016449e-01  4.51327860e-02  8.96685477e-03
 -1.39962524e-01 -1.94791079e-01 -8.43333378e-02  2.46261925e-01
  6.77501321e-01  3.65060329e-01 -3.98402423e-01  4.41630045e-03
 -8.17123115e-01  2.56007791e-01  5.24800606e-02  2.23417208e-01
  1.76155090e-01  4.75082546e-02  2.26354361e-01 -7.45332018e-02
  2.79856985e-03 -4.69579361e-03  4.17666277e-03  2.30236980e-03]
[-0.0346253  -0.02890457  0.02667207 -0.0240885   0.0255729  -0.00527262
 -0.02505125 -0.02330991 -0.02412168 -0.03018552 -0.03327938 -0.00910178
  0.02624758  0.00766555  0.02299613 -0.02978778 -0.01633672  0.01214343
  0.01567701  0.02451716 -0.00992005 -0.01823976 -0.02772393 -0.02176225
 -0.02267028 -0.01249699  0.03042901  0.00086294 -0.00421884  0.01244027
  0.03133064 -0.01015647  0.00388331 -0.00579737  0.01482863 -0.02823406
 -0.00965261  0.03338567 -0.01528703 -0.00429225 -0.00853229  0.00967687
  0.01464089 -0.02617559 -0.00748712 -0.01092703  0.00739841 -0.0065713
  0.00536544 -0.00705838 -0.00147041 -0.00835177 -0.0311531   0.00414951
  0.00739271 -0.01750858 -0.01021736  0.00476062  0.02830322 -0.02926281
  0.03418833  0.01928893  0.02725396  0.02258027 -0.02851109  0.001303
 -0.02973625 -0.01764113 -0.03359788 -0.02500326  0.0009008  -0.02599509
  0.01452916 -0.03227621 -0.00403539  0.01298625 -0.01508358  0.02897503
 -0.01568918  0.02245111  0.01680908 -0.02052539  0.02159479 -0.00063625
  0.03164295 -0.00413134  0.03374965  0.0212591  -0.01725268  0.02541277
  0.00157089  0.03304823  0.00820947 -0.02921755  0.00772113 -0.0116068
  0.01203402  0.02378074 -0.00811466  0.00855197  0.00186055 -0.00669485
 -0.00312999 -0.02238096  0.01796019  0.00484615 -0.00373383 -0.020012
  0.00800921 -0.03300811 -0.00610734  0.00150356  0.00422382  0.00536255
  0.00997568  0.03129659 -0.00209518 -0.01107252 -0.01203742 -0.02386951
  0.01438781  0.02885477  0.0246001   0.02443422  0.01020347 -0.00820094
  0.00429145 -0.01706286  0.01265419  0.01486789 -0.00949933 -0.00282566
  0.00553082  0.01870388 -0.02624075 -0.00216353  0.00462421  0.02138438
  0.0087118   0.00338972  0.00177385  0.02691232 -0.02017212 -0.01543119
  0.01512591 -0.03554367  0.00891837  0.02250211 -0.02047104 -0.00161841
 -0.00247581  0.01569543  0.03461114  0.03118418 -0.01973003 -0.01586276
  0.0331983  -0.028425   -0.02848873 -0.00942463  0.00369249  0.0204298
  0.01013775  0.02432313  0.00096386  0.00289214 -0.02086653 -0.03102093
  0.02429075 -0.02581627 -0.0021857   0.00604976  0.01133583  0.01605787
 -0.03399884 -0.02768668 -0.01201246  0.01235106 -0.02507636  0.02150241
  0.0236686  -0.03120978 -0.02022852 -0.01236137 -0.01776983 -0.02161928
  0.02986869  0.03551737  0.01916462  0.02046465  0.02933608  0.02005133
  0.0237456   0.00882518 -0.02578685 -0.02393679  0.03235328  0.00409202
 -0.02695712  0.01352857]
[-3.13166827e-01 -1.20976239e-01  2.52933085e-01  1.06758118e-01
 -1.95665792e-01  9.78090838e-02  1.51121290e-02  2.02062726e-01
  1.60046190e-01  8.83577988e-02 -3.14526148e-02 -5.03797736e-03
  1.73756868e-01  1.53892741e-01 -3.08632016e-01 -5.40555477e-01
 -2.34394267e-01  2.04793294e-03  8.61536944e-04  2.58386344e-01
 -2.10958868e-01 -7.15763748e-01 -3.94188225e-01  9.28559154e-02
 -2.15095654e-01 -9.64913219e-02 -2.29158565e-01 -1.00355767e-01
 -1.66214257e-01 -5.16457498e-01 -1.36344790e-01 -9.63776037e-02
  1.24291092e-01  2.81389773e-01 -8.20519030e-02 -1.22955479e-01
  3.51186484e-01 -2.31741086e-01 -1.52015137e-02 -3.28371441e-03
  2.49788761e-01 -4.28344518e-01  1.14546542e-03 -1.55200355e-03
  1.57049356e-03  1.38418034e-01 -4.08564247e-02  4.49917763e-01
 -2.00579777e-01  5.66981733e-02 -2.52967724e-03 -1.17660396e-01
  2.13852361e-01 -3.67866189e-04  5.04671037e-01 -6.03055756e-04
 -1.34353386e-02  1.18877999e-02  2.27528945e-01 -1.77515000e-01
  4.56943661e-01  5.67855060e-01 -1.70532674e-01 -1.70814451e-02
  1.17582111e-02 -1.66198775e-01 -8.45298320e-02  6.54995203e-01
 -5.56655833e-03  5.64416759e-02 -2.24117920e-01  4.56385911e-01
 -8.43549743e-02  2.54661292e-01  2.03532547e-01  1.48520628e-02
 -3.56472760e-01  1.45371214e-01 -2.35548913e-02  1.00109242e-01
  2.51972061e-02  5.36203198e-02 -4.69682459e-03 -1.64209023e-01
 -4.18674238e-02  5.75337559e-02  9.67243463e-02 -6.16730116e-02
  3.80149603e-01 -3.16658616e-01 -2.58924544e-01  1.33133397e-01
  1.04022492e-03  6.76371753e-01 -1.99360043e-01  1.40626437e-03
 -3.45343590e-01  9.53957066e-02  3.33359838e-02  8.58293772e-02
 -9.72188711e-02  8.81467771e-04  1.10414829e-02 -3.11229713e-02
 -1.18492424e+00 -5.00545084e-01 -1.29352342e-02 -5.86177707e-02
  3.85084189e-02 -2.08621338e-01  2.47757226e-01 -4.26778823e-01
 -1.69228747e-01  8.50460213e-03 -5.53458147e-02  2.78800100e-01
  1.52850598e-01 -1.76578760e-01  1.25349194e-01 -5.56396186e-01
 -8.40002019e-03  3.22865248e-01  4.30741102e-01 -3.43133867e-01
 -1.88321155e-03 -1.37402639e-01 -7.36634910e-01 -2.55699247e-01
  8.12632265e-04 -3.02853785e-03 -1.47387341e-01 -1.36292592e-01
 -2.07761824e-01 -4.11224991e-01 -9.63618862e-04 -6.57294914e-02
  6.04296662e-02 -2.03312244e-02  3.48189324e-01  1.85036317e-01
 -2.37318784e-01 -3.49067301e-01  2.26139084e-01  6.27292171e-02
 -8.42645706e-04 -1.24003319e-02 -3.92645076e-02  2.16206968e-01
 -4.46309224e-02  1.79794863e-01  7.90050030e-02 -1.60370916e-01
  3.16420913e-01 -4.35605040e-03  6.69880882e-02  2.44926400e-02
  1.47589087e-01  1.53061599e-01  3.92577890e-03  2.96321154e-01
 -3.77910137e-01  3.23927775e-02 -7.02273309e-01  4.07046527e-01
 -2.68410981e-01 -2.37235919e-01 -3.40601206e-01  1.16700843e-01
  2.45506763e-01  3.90654862e-01 -2.38086935e-02  8.04982483e-02
  2.37134233e-01  1.23328984e-01 -1.97945625e-01  9.97962547e-04
  7.34154224e-01  3.22405453e-04  4.63563688e-02 -8.77822861e-02
 -4.43046913e-02  6.29061684e-02  8.40363130e-02 -2.44052961e-01
 -1.09281749e-01 -2.35896677e-01  6.50297627e-02 -2.10356470e-02
  1.88033395e-02 -1.46300225e-02  3.25146884e-01  2.12577790e-01
  1.73953503e-01 -1.00179642e-01 -3.49158607e-02 -6.75677613e-04
 -2.53099710e-01 -1.29229724e-01  1.22372635e-01  4.17750210e-01]
[-0.0050079  -0.04262691 -0.05716169  0.04035595  0.02904116  0.0327118
 -0.02200917  0.04967713  0.01069256  0.00324765  0.01815851  0.02926135
  0.05121832  0.03037008 -0.0259867  -0.03750028  0.00951305 -0.06108533
  0.00349803  0.04368909 -0.01635972 -0.00227882  0.04757521 -0.05457859
  0.02281093  0.05205458 -0.04652059  0.01169327 -0.04599722 -0.06595035
  0.05158417 -0.06259415 -0.03582447 -0.0499711   0.04117122  0.0074242
  0.05022641  0.0434421   0.03685131  0.03090737  0.05200932 -0.05869739
 -0.03939594 -0.03036168 -0.05294677 -0.05079439 -0.06190713 -0.02422833
  0.0299447  -0.02758613  0.05777506 -0.03443463 -0.07006112  0.0074621
 -0.00183887 -0.05992485  0.04253918 -0.0406887  -0.0631469  -0.01858891
  0.01827362 -0.04664862 -0.01913875 -0.05637064 -0.01925475 -0.02997895
 -0.01401563 -0.00702029 -0.01891689 -0.02706673 -0.03561409 -0.02790004
  0.05724908 -0.01621082  0.02055743  0.03504028 -0.06633559 -0.05214372
  0.04853803 -0.022481    0.0175024   0.04590811  0.00247568  0.05156238
  0.0497072  -0.06522267  0.02296358 -0.02104533  0.04613905 -0.01710068
 -0.04748852 -0.03471567 -0.01459846 -0.06157876 -0.06491724 -0.06483033
  0.04855507 -0.00395041 -0.02826149  0.01114923]
[-3.2610057e-03 -3.6599312e-02  7.8794817e-03  1.1975934e-04
 -1.0207779e-01  1.0481058e-02 -2.2971139e-03  1.4789410e-01
  1.8700095e-01 -1.7403575e-02  1.8578533e-02 -4.6496846e-02
  2.8598469e-01 -7.1409501e-02 -7.1746245e-02 -1.3289896e-01
 -2.1529579e-01 -1.0627027e-02  1.0952007e-01  2.3383786e-01
 -3.8547296e-02  7.8088276e-02 -7.8702653e-03 -4.6852034e-01
 -1.5620276e-02  4.7687879e-03 -1.1416726e-03 -1.5097180e-02
  1.2364609e-01 -6.4446609e-03 -1.1434925e-01 -1.6780141e-03
 -2.0689617e-01 -7.0555575e-02 -3.6146808e-02  2.2440583e-02
  9.2837363e-02 -1.2769142e-01 -5.8317161e-01  1.7580561e-01
  6.1401092e-03 -3.6768413e-01  1.0127085e-02 -5.2036846e-01
  3.4935439e-03 -1.6384837e-01  3.9415970e-01 -1.1128850e-01
 -3.7213735e-02 -3.2666928e-01  1.8546985e-01  2.8389141e-02
 -2.0357560e-01 -9.4720483e-02  1.6797918e-01 -3.7867982e-02
  4.4548985e-02  2.6518533e-01  2.0950196e-02  1.3123576e-01
 -6.1340906e-02  9.8552117e-03 -4.6162065e-02 -3.7448880e-01
 -1.0728228e-02  2.2505879e-01  3.1260375e-03  7.7903211e-02
 -1.3740653e-01  8.8215880e-02  8.2137570e-02  8.3907861e-03
 -2.1063489e-01 -3.3421256e-03 -4.7167875e-02  1.1558374e-02
  7.6608986e-02 -3.9698627e-02 -1.0713600e-01 -3.8961361e-03
  9.7508141e-04  8.7938868e-02 -2.1363030e-01 -6.8413354e-02
 -4.9911730e-02 -9.9602705e-03 -3.2062825e-02  3.2358378e-01
  1.6792610e-01  8.3091948e-04 -1.9486671e-02  8.1563927e-02
  7.2718300e-02 -1.7508687e-03  5.6407847e-02 -4.9339529e-02
 -2.5598156e-01  1.1319410e-01  5.2471431e-03  4.0000278e-01]
[ 0.05687112  0.08760899 -0.03723095 -0.04216678  0.02771358  0.02807046
 -0.09846147 -0.00712357  0.02610006 -0.08264936  0.05341387 -0.07636775
 -0.04574686  0.06875858 -0.03457575  0.00263636  0.07879225 -0.05579235
 -0.02857235 -0.03358393  0.08948074 -0.06102486  0.043815   -0.09962157
 -0.07641389 -0.07938791 -0.02341104 -0.00221202 -0.06463064 -0.07113091
  0.06789989  0.04991062 -0.06322777  0.02652064 -0.05547772 -0.06401464
  0.06561051 -0.04716318 -0.05003384  0.09086552  0.09889332  0.01690032
 -0.03236375 -0.08587349  0.05047135  0.09953982 -0.01831024 -0.09398761
 -0.00107558 -0.02985668  0.01870936  0.01560699  0.01394523  0.07684092
  0.08166805  0.03706361  0.06107546 -0.04550169  0.06412639  0.05617613
 -0.09304164  0.02285856 -0.08963706 -0.07046366 -0.06463535 -0.0736158
  0.07023738 -0.0206071  -0.04626527 -0.03636254 -0.07007702 -0.04997677
 -0.09514836 -0.02911622  0.08611155 -0.02914334 -0.05055345  0.08616049
  0.04396868  0.01088472 -0.08175981 -0.07076905 -0.04918333  0.09302764
 -0.06919996 -0.08622181  0.07228462 -0.08518552  0.07435275  0.07856019
  0.01722384 -0.03563127  0.01124581  0.09969083 -0.09738129 -0.09934273
 -0.00265515 -0.01684161  0.03321419 -0.0788849 ]
[ 0.07150371  0.02113694  0.00686753 -0.4570088  -0.04267875 -0.07052694
 -0.03534866 -0.13805458  0.06710753 -0.18199465 -0.00719843  0.07524154
 -0.1858216   0.14585029 -0.20578997 -0.00237826 -0.3041388   0.02172637
  0.30857158  0.05205372 -0.03998813  0.05600004  0.08703806  0.05383027
  0.04889299 -0.02382557 -0.00155263 -0.04237732 -0.00053587 -0.08203764
 -0.08260766  0.0215869   0.00302877  0.01091891  0.2957951  -0.10536163
 -0.00627366  0.20296691  0.02463861 -0.11293423 -0.09991383  0.2631535
 -0.11776889  0.04414514 -0.52518183  0.03971691  0.4423027  -0.17378056
 -0.0090624   0.01540178 -0.05478228  0.27571666 -0.00777445 -0.09410614
 -0.00558997  0.09952816 -0.14385745 -0.11561877  0.13463345  0.50468326
 -0.03892422 -0.14240143  0.13430715  0.03897378  0.05837486  0.04533344
 -0.29975504  0.01816862 -0.17183526  0.02367686 -0.07677268 -0.1546753
  0.00268462 -0.09056579  0.21946536 -0.19406305 -0.18647157  0.25099444
  0.12256542 -0.18773878 -0.00676853  0.00154653 -0.24726263 -0.01410991
  0.24955165  0.03830738 -0.15329969 -0.06572998 -0.00522341 -0.09259734
 -0.14873149 -0.00325527  0.07705344 -0.12123546 -0.04858267 -0.01092526
  0.01311219 -0.19043244  0.0053507  -0.27470532]
[ 0.09824974 -0.04519508  0.05715472 -0.03214687 -0.0592505  -0.03704265
  0.0720201   0.01458789 -0.02352046  0.05222008 -0.0523359  -0.06059225
 -0.06453705  0.08345861 -0.00367563 -0.0617654  -0.03182526  0.0933103
  0.08680664  0.08623215 -0.07670981 -0.08773708 -0.08933352  0.02671498
  0.05408681 -0.07645727 -0.04293776 -0.08947595  0.01702368  0.04097036
  0.07719539  0.04672727 -0.07387248  0.00526511 -0.05038528 -0.07930855
  0.02850915  0.09166742 -0.04717844 -0.009186    0.09604795  0.04229175
  0.08185908 -0.08943437  0.07723293 -0.06190181 -0.04914507  0.02164356
 -0.0562139  -0.09988654  0.06229081 -0.09349027 -0.08649456  0.02303464
 -0.02407839  0.06366333  0.09708286 -0.0589005  -0.08345581  0.05395232
  0.03596317 -0.04065654 -0.02430554 -0.08920272 -0.00722081 -0.04610303
 -0.02083562  0.08067883 -0.04024908  0.04761401  0.09324689  0.02790671
  0.07990687 -0.06183024 -0.04681773 -0.05243646 -0.00974507 -0.07157553
 -0.06779758  0.08510761  0.05121217  0.02110738 -0.0744743  -0.09695818
 -0.01722858 -0.00765504 -0.01741104 -0.02225452  0.08612285  0.0065236
 -0.06151311 -0.05269691 -0.05675922  0.01330358  0.01595359  0.0581513
 -0.00296365 -0.08634778  0.06186535 -0.0475728 ]
[ 5.61969839e-02  1.28513062e-03 -1.60102453e-02 -4.68168473e-05
 -8.28241580e-04  8.22105358e-05  4.08144551e-04 -7.87840970e-03
 -1.04401406e-04 -6.23063510e-03  7.55971923e-05  1.91969133e-03
 -3.45163357e-06  6.59513695e-04  3.78738809e-03  1.45345286e-03
 -3.99928307e-03  1.15769589e-02 -3.90593865e-04 -3.97937112e-02
 -2.77942326e-03  7.11541111e-03  1.78278666e-02 -3.20950039e-02
 -7.66235739e-02 -1.41798379e-03  8.12259130e-03 -8.81268352e-05
 -1.90652767e-03 -5.64432703e-04 -4.24765785e-05 -3.97717394e-02
 -6.63815485e-03  6.49047131e-03 -2.34067757e-02 -1.10327572e-04
 -2.07002508e-03 -7.07501313e-03  1.59585848e-04  2.43186529e-04
 -7.46775232e-03 -3.13822948e-03 -2.75822182e-04  2.35903752e-03
 -2.90626031e-03  8.50207359e-02 -3.31851566e-04 -9.41552687e-04
 -2.14715517e-04 -1.68286089e-03 -3.45639954e-03 -2.47375132e-03
  4.20930628e-05  3.87215056e-02  7.01597035e-02  6.36949902e-03
  2.97195418e-03  1.03793308e-01  2.96152633e-04  1.06386160e-02
 -1.05757071e-02  1.68131941e-04  2.72329431e-02  8.31273571e-03
 -1.78395510e-02 -1.27335057e-01 -1.83082931e-03  6.67580776e-03
  6.81426004e-03  6.30656839e-04  9.52588220e-04  2.67264829e-03
  8.92428332e-04  1.05858757e-03  1.57286369e-04  7.20269978e-03
 -6.30699913e-04 -1.34867558e-04  7.45463058e-06 -2.59218941e-04
  2.22369451e-02 -3.71481963e-02  2.04684888e-03  2.71270819e-05
 -2.90707289e-03  1.58461207e-03  2.25066920e-04  1.50354928e-03
  1.52838239e-02 -6.12824340e-04  1.28961140e-02  1.42056733e-05
 -2.01754528e-03  1.06926258e-04  7.98070431e-03 -6.41651675e-02
 -2.59520166e-04 -2.29776395e-03 -1.45876867e-04  6.73210248e-03]
[-0.01252104 -0.01892845 -0.00263616 -0.04032238 -0.02929514 -0.08451505
  0.07445007  0.0279513  -0.01662201 -0.0832475 ]
